<?xml version="1.0"?>
<opencv_storage>
<!-- Created using Computer Vision Toolbox(tm) for MATLAB(R) -->
<!-- Version 9.7.0.1190202 (R2019b) -->
<!-- Compatible with OpenCV 3.4 -->
<cascade>
  <stageType>BOOST</stageType>
  <featureType>LBP</featureType>
  <height>48</height>
  <width>32</width>
  <stageParams>
    <boostType>GAB</boostType>
    <minHitRate>9.9500000476837158e-01</minHitRate>
    <maxFalseAlarm>9.9999997764825821e-03</maxFalseAlarm>
    <weightTrimRate>9.4999999999999996e-01</weightTrimRate>
    <maxDepth>1</maxDepth>
    <maxWeakCount>100</maxWeakCount></stageParams>
  <featureParams>
    <maxCatCount>256</maxCatCount>
    <featSize>1</featSize></featureParams>
  <stageNum>5</stageNum>
  <stages>
    <!-- stage 0 -->
    <_>
      <maxWeakCount>28</maxWeakCount>
      <stageThreshold>-2.5296863913536072e-01</stageThreshold>
      <weakClassifiers>
        <_>
          <internalNodes>
            0 -1 37 -65556 -134349322 -609182072 -25601 -74520065
            -22445172 -7545860 -17409</internalNodes>
          <leafValues>
            -6.8947005271911621e-01 4.9408379197120667e-01</leafValues></_>
        <_>
          <internalNodes>
            0 -1 172 -1 -327683 -131073 -65540 -9437187 -65555 -525316
            -16982844</internalNodes>
          <leafValues>
            -5.0130993127822876e-01 6.2654864788055420e-01</leafValues></_>
        <_>
          <internalNodes>
            0 -1 166 -595271984 -733940532 -715066032 -582617098
            -801833808 -591332656 -147726391 -579864641</internalNodes>
          <leafValues>
            -5.0471538305282593e-01 5.0222647190093994e-01</leafValues></_>
        <_>
          <internalNodes>
            0 -1 19 -18088617 -663683181 -147141450 536929826 -67218826
            -553518831 -288428890 -533541374</internalNodes>
          <leafValues>
            -4.4489935040473938e-01 4.2321518063545227e-01</leafValues></_>
        <_>
          <internalNodes>
            0 -1 236 -336593105 -1367412594 -338729354 -1000414510
            -740333755 1209318015 -520830096 -730335516</internalNodes>
          <leafValues>
            -5.0098353624343872e-01 3.4862512350082397e-01</leafValues></_>
        <_>
          <internalNodes>
            0 -1 27 -1895829521 -1374753554 -576865539 -286742048
            -1277662425 1262970996 -671351340 -722475323</internalNodes>
          <leafValues>
            -4.8530530929565430e-01 3.2435894012451172e-01</leafValues></_>
        <_>
          <internalNodes>
            0 -1 188 -134486021 -1451367514 2125331187 -19925096
            -1828733186 -830808546 1429894608 -924520240</internalNodes>
          <leafValues>
            -3.8972643017768860e-01 3.9648127555847168e-01</leafValues></_>
        <_>
          <internalNodes>
            0 -1 70 -50283981 -36494754 -218824015 1057104395 1763304123
            -375294759 1084438795 722412075</internalNodes>
          <leafValues>
            -3.9772042632102966e-01 3.9620670676231384e-01</leafValues></_>
        <_>
          <internalNodes>
            0 -1 220 -578273 -54496417 -1806213733 1484776415
            -1283584172 -58924699 -488644812 -296299393</internalNodes>
          <leafValues>
            -4.0383446216583252e-01 3.8942134380340576e-01</leafValues></_>
        <_>
          <internalNodes>
            0 -1 173 754857845 -1074692642 -41680900 -604259540 -508124
            -7342455 -43017460 -1380434000</internalNodes>
          <leafValues>
            -4.7997477650642395e-01 3.2574337720870972e-01</leafValues></_>
        <_>
          <internalNodes>
            0 -1 64 -1422142765 -1532088416 536830295 -738197778
            -1242255887 -1130431052 -268895247 -840641148</internalNodes>
          <leafValues>
            -3.8015952706336975e-01 4.1090387105941772e-01</leafValues></_>
        <_>
          <internalNodes>
            0 -1 206 -16777809 -522831882 -161837867 -392701370
            -806355523 -852895565 -1003133564 -992488364</internalNodes>
          <leafValues>
            -3.7099772691726685e-01 4.1652971506118774e-01</leafValues></_>
        <_>
          <internalNodes>
            0 -1 44 -523239633 1649394551 -761269010 279642070
            -473182891 590457183 -1418986794 -263070925</internalNodes>
          <leafValues>
            -5.1731759309768677e-01 2.9749420285224915e-01</leafValues></_>
        <_>
          <internalNodes>
            0 -1 113 1413482660 867265812 -1867054155 2113375503
            -282852681 2122936215 -2000289366 797313830</internalNodes>
          <leafValues>
            -5.3367793560028076e-01 2.7383208274841309e-01</leafValues></_>
        <_>
          <internalNodes>
            0 -1 136 -19001409 -352627882 420110333 -56699405 -157949060
            -15676807 -1181094924 -27240000</internalNodes>
          <leafValues>
            -4.2909258604049683e-01 3.4692859649658203e-01</leafValues></_>
        <_>
          <internalNodes>
            0 -1 202 -285233577 2142236655 1073676092 -16912389
            -436865212 1433927524 -50858788 -487260161</internalNodes>
          <leafValues>
            -3.7412700057029724e-01 4.0639248490333557e-01</leafValues></_>
        <_>
          <internalNodes>
            0 -1 60 -285254113 -1105320145 -1369946034 -256224694
            1548046164 1498894683 -569696020 -730774674</internalNodes>
          <leafValues>
            -4.1855943202972412e-01 3.4270864725112915e-01</leafValues></_>
        <_>
          <internalNodes>
            0 -1 201 -17870793 -27295755 -537116769 -556964010
            -1663870750 -67111201 -50791718 -358056062</internalNodes>
          <leafValues>
            -3.2853248715400696e-01 4.6059444546699524e-01</leafValues></_>
        <_>
          <internalNodes>
            0 -1 69 -1503707265 786088866 2080700413 -856775224
            1036385199 -1986815557 -628980138 -191081324</internalNodes>
          <leafValues>
            -4.4794932007789612e-01 3.3253338932991028e-01</leafValues></_>
        <_>
          <internalNodes>
            0 -1 142 -1058336937 -20811942 -1157352227 1689949594
            -1948504303 -2432024 -4128839 -57356556</internalNodes>
          <leafValues>
            -4.3718004226684570e-01 3.5012143850326538e-01</leafValues></_>
        <_>
          <internalNodes>
            0 -1 215 -1309148879 1726584549 -675055156 -447157092
            1615553983 1470555491 -756878080 -2073259420</internalNodes>
          <leafValues>
            -4.7975146770477295e-01 3.2912600040435791e-01</leafValues></_>
        <_>
          <internalNodes>
            0 -1 73 1891931248 -250552354 1682208468 -731567525
            -784285228 -91602304 1824063982 281397367</internalNodes>
          <leafValues>
            -5.2274912595748901e-01 2.9889357089996338e-01</leafValues></_>
        <_>
          <internalNodes>
            0 -1 212 -270008481 -671090315 -337647306 1217633372
            -1614843072 -1375505284 -633692928 -363402446</internalNodes>
          <leafValues>
            -4.2807155847549438e-01 3.6322411894798279e-01</leafValues></_>
        <_>
          <internalNodes>
            0 -1 233 -79197353 -91669393 -96542725 308082455 -294391724
            -59306017 -1158809642 -763962267</internalNodes>
          <leafValues>
            -3.5917872190475464e-01 4.4967904686927795e-01</leafValues></_>
        <_>
          <internalNodes>
            0 -1 42 -1428248937 -356331041 -589938406 -1609919548
            -291680972 1396352277 1917413344 -1031608429</internalNodes>
          <leafValues>
            -4.9991372227668762e-01 3.3472567796707153e-01</leafValues></_>
        <_>
          <internalNodes>
            0 -1 221 -537174033 -1913916926 -248251694 -756820666
            -813960217 718008523 -175391808 -201852955</internalNodes>
          <leafValues>
            -3.8691899180412292e-01 3.9158096909523010e-01</leafValues></_>
        <_>
          <internalNodes>
            0 -1 145 -670596967 -1210844678 -1260794975 -170153257
            968824987 1832069350 -2062343812 832643242</internalNodes>
          <leafValues>
            -4.1006758809089661e-01 3.9226737618446350e-01</leafValues></_>
        <_>
          <internalNodes>
            0 -1 183 -1901126603 1049301881 -1639725057 2138201543
            685399164 -24411944 -73516044 -1397597192</internalNodes>
          <leafValues>
            -4.9075636267662048e-01 3.2543575763702393e-01</leafValues></_></weakClassifiers></_>
    <!-- stage 1 -->
    <_>
      <maxWeakCount>44</maxWeakCount>
      <stageThreshold>-4.4545969367027283e-01</stageThreshold>
      <weakClassifiers>
        <_>
          <internalNodes>
            0 -1 4 -286330881 -65569 -854212643 -2246659 -1929515009
            -16806401 -807417345 -13313</internalNodes>
          <leafValues>
            -5.5758184194564819e-01 4.1911149024963379e-01</leafValues></_>
        <_>
          <internalNodes>
            0 -1 16 -87889950 1355871926 -1001075075 -1183899 -229574672
            -12272719 -412102689 -2101265</internalNodes>
          <leafValues>
            -4.2367148399353027e-01 3.7684249877929688e-01</leafValues></_>
        <_>
          <internalNodes>
            0 -1 213 -529533888 -1797462888 -1339801536 -571614789
            -177786496 -101211291 -394943743 -68683525</internalNodes>
          <leafValues>
            -4.3965637683868408e-01 3.1392747163772583e-01</leafValues></_>
        <_>
          <internalNodes>
            0 -1 182 -1107296769 -42008581 2146959359 -8913924
            -1074726929 -1107296322 -1684015107 -289613580</internalNodes>
          <leafValues>
            -3.0895745754241943e-01 4.1770517826080322e-01</leafValues></_>
        <_>
          <internalNodes>
            0 -1 85 1346404992 33044869 -2143246289 1034398339
            1364507048 1935520757 -23876709 799998510</internalNodes>
          <leafValues>
            -4.7094646096229553e-01 2.3818558454513550e-01</leafValues></_>
        <_>
          <internalNodes>
            0 -1 211 -25168057 1363142423 -4444289 892796499 1542745412
            -547365035 -1196228980 -217841793</internalNodes>
          <leafValues>
            -2.8307145833969116e-01 3.8469940423965454e-01</leafValues></_>
        <_>
          <internalNodes>
            0 -1 32 -419467445 214625807 -190927362 -1602558082
            -337677025 2092126078 -137166025 -136839377</internalNodes>
          <leafValues>
            -3.2869249582290649e-01 3.2486987113952637e-01</leafValues></_>
        <_>
          <internalNodes>
            0 -1 205 -990659521 648472778 -1912648452 -1376019420
            1845230847 -1436463233 1081934937 -842022765</internalNodes>
          <leafValues>
            -2.7909335494041443e-01 3.7752276659011841e-01</leafValues></_>
        <_>
          <internalNodes>
            0 -1 197 788405279 1837038631 2096754551 -151027789
            -35168448 2112877177 -553878700 -396051664</internalNodes>
          <leafValues>
            -4.5453217625617981e-01 2.2694432735443115e-01</leafValues></_>
        <_>
          <internalNodes>
            0 -1 35 -100731525 -1291633579 546629806 537041034
            -1708449723 -407427833 542222990 -260967565</internalNodes>
          <leafValues>
            -3.5083213448524475e-01 2.8350174427032471e-01</leafValues></_>
        <_>
          <internalNodes>
            0 -1 146 80430341 246429403 1308175739 -1361917457
            2087284021 2147447289 -604640400 -289482588</internalNodes>
          <leafValues>
            -4.5633518695831299e-01 2.1160896122455597e-01</leafValues></_>
        <_>
          <internalNodes>
            0 -1 8 -1247367376 -184877325 1709047157 -1379628494
            2025412596 -1141392470 2051407849 -806025606</internalNodes>
          <leafValues>
            -3.6713916063308716e-01 3.0164897441864014e-01</leafValues></_>
        <_>
          <internalNodes>
            0 -1 158 -918225024 1374877 1374196093 757394573 1356073355
            1253938621 1227299403 955092527</internalNodes>
          <leafValues>
            -4.1863480210304260e-01 2.4380990862846375e-01</leafValues></_>
        <_>
          <internalNodes>
            0 -1 171 138698240 -1762066729 -867864065 2090652504
            307394149 -1342598724 -155653132 -1361806528</internalNodes>
          <leafValues>
            -5.3200787305831909e-01 1.9670426845550537e-01</leafValues></_>
        <_>
          <internalNodes>
            0 -1 1 -840700958 -1375022736 -38549671 -1779665772
            167697605 -160002397 15466694 -839659276</internalNodes>
          <leafValues>
            -3.7952727079391479e-01 2.7027294039726257e-01</leafValues></_>
        <_>
          <internalNodes>
            0 -1 189 -113290159 2145195854 -1840472705 -1612836609
            -95405619 -338664660 -366936398 -1431283536</internalNodes>
          <leafValues>
            -3.1571376323699951e-01 3.1308808922767639e-01</leafValues></_>
        <_>
          <internalNodes>
            0 -1 200 -1082547269 -1362734382 -783439042 -70328114
            -1260934721 -925992557 1371755729 -1002441514</internalNodes>
          <leafValues>
            -3.2390949130058289e-01 3.1455412507057190e-01</leafValues></_>
        <_>
          <internalNodes>
            0 -1 6 -424769581 -806425689 -404280777 1038257444
            1131079667 -354568964 1190485498 -996968462</internalNodes>
          <leafValues>
            -2.8641673922538757e-01 3.3555573225021362e-01</leafValues></_>
        <_>
          <internalNodes>
            0 -1 75 -880566305 558361078 -1132340989 -1457075702
            -90704049 -934785340 -842329525 1280437315</internalNodes>
          <leafValues>
            -3.2700115442276001e-01 3.0885627865791321e-01</leafValues></_>
        <_>
          <internalNodes>
            0 -1 50 -1075722673 2143019582 805238647 824196719 -8496265
            -9482410 -536936833 -12096205</internalNodes>
          <leafValues>
            -2.5648304820060730e-01 3.8482382893562317e-01</leafValues></_>
        <_>
          <internalNodes>
            0 -1 230 1341910503 -889757697 -31998214 -31719478 362006343
            29092728 -775991184 -457048380</internalNodes>
          <leafValues>
            -4.4966754317283630e-01 2.2367036342620850e-01</leafValues></_>
        <_>
          <internalNodes>
            0 -1 41 1883269366 640337858 -1881887947 797125231
            2052339631 -1465800013 -1092089041 250028858</internalNodes>
          <leafValues>
            -4.4741603732109070e-01 2.2973272204399109e-01</leafValues></_>
        <_>
          <internalNodes>
            0 -1 154 146214719 513770846 705838933 -18289987 2060697439
            -1586794378 -1276826640 -2033437584</internalNodes>
          <leafValues>
            -4.1954806447029114e-01 2.3263119161128998e-01</leafValues></_>
        <_>
          <internalNodes>
            0 -1 43 2111808819 804708299 -111829356 1625848799
            -126149332 -863565262 -195183488 -273155086</internalNodes>
          <leafValues>
            -3.1422522664070129e-01 3.0871599912643433e-01</leafValues></_>
        <_>
          <internalNodes>
            0 -1 117 1367176784 517616515 -1409118755 -20643845
            2068315381 -1078953235 -1433988039 -1184076852</internalNodes>
          <leafValues>
            -3.9305451512336731e-01 2.4267986416816711e-01</leafValues></_>
        <_>
          <internalNodes>
            0 -1 239 -1343770973 -1463343693 -904881034 -1437140777
            1045374775 1718009935 2013229398 -219679001</internalNodes>
          <leafValues>
            -3.9224398136138916e-01 2.4182283878326416e-01</leafValues></_>
        <_>
          <internalNodes>
            0 -1 123 -663206068 -21048425 -682488839 -611131657
            -724008684 2047238530 1825196697 -886424204</internalNodes>
          <leafValues>
            -4.2232137918472290e-01 2.2098243236541748e-01</leafValues></_>
        <_>
          <internalNodes>
            0 -1 82 260794899 711101316 2110736215 1690884588 787570815
            -2017152099 1871442069 -560737708</internalNodes>
          <leafValues>
            -4.3547946214675903e-01 2.2519984841346741e-01</leafValues></_>
        <_>
          <internalNodes>
            0 -1 57 1342497360 -1724616252 -2079744678 -1383125892
            1165267144 -127678319 -108585330 702753479</internalNodes>
          <leafValues>
            -3.9841923117637634e-01 2.4012222886085510e-01</leafValues></_>
        <_>
          <internalNodes>
            0 -1 118 150716261 -1537707593 -769693069 -76506664
            -69321035 -1175268951 -1119096991 -1397976520</internalNodes>
          <leafValues>
            -3.8020101189613342e-01 2.6444533467292786e-01</leafValues></_>
        <_>
          <internalNodes>
            0 -1 234 644823858 547540447 -1730544060 -1058079723
            462902065 1137545247 -1838569484 -789546252</internalNodes>
          <leafValues>
            -5.3939205408096313e-01 1.7719045281410217e-01</leafValues></_>
        <_>
          <internalNodes>
            0 -1 17 1886123375 1344579192 -529383440 1883865073
            -193605905 -310575114 -847907521 -327811485</internalNodes>
          <leafValues>
            -2.4845144152641296e-01 4.0792381763458252e-01</leafValues></_>
        <_>
          <internalNodes>
            0 -1 0 -1886932997 1845610226 -455351309 -72370240
            -667454594 -1713453909 -1857640971 -1933118351</internalNodes>
          <leafValues>
            -3.1915345788002014e-01 3.1749111413955688e-01</leafValues></_>
        <_>
          <internalNodes>
            0 -1 186 2032823037 -1695481921 -285216867 -9048073
            782876149 -4333602 -1644339979 -1344349928</internalNodes>
          <leafValues>
            -3.0836066603660583e-01 3.3198922872543335e-01</leafValues></_>
        <_>
          <internalNodes>
            0 -1 132 536880262 383027550 -538803203 -37482244 1342256834
            -38713156 -610915847 618694410</internalNodes>
          <leafValues>
            -4.4647577404975891e-01 2.3371703922748566e-01</leafValues></_>
        <_>
          <internalNodes>
            0 -1 210 -293734081 1361476927 955530109 456183586 -42112896
            -213147 1756613887 -94111449</internalNodes>
          <leafValues>
            -2.3923096060752869e-01 4.2142653465270996e-01</leafValues></_>
        <_>
          <internalNodes>
            0 -1 38 994540327 -285809890 90484567 -889409870 1775843435
            648538799 -1576998024 -665715136</internalNodes>
          <leafValues>
            -3.2564172148704529e-01 3.1951001286506653e-01</leafValues></_>
        <_>
          <internalNodes>
            0 -1 238 -1345894865 -1971639381 -464669026 -152392298
            1908820519 1695236822 -263245376 -977864933</internalNodes>
          <leafValues>
            -3.8774588704109192e-01 2.7285245060920715e-01</leafValues></_>
        <_>
          <internalNodes>
            0 -1 108 -916410778 -1643641427 -865430884 -811744827
            1213655109 614137990 170131261 -1841047829</internalNodes>
          <leafValues>
            -3.3044108748435974e-01 3.0171367526054382e-01</leafValues></_>
        <_>
          <internalNodes>
            0 -1 162 1026304884 -426759839 -674992969 1010035616
            2027698404 -611955955 -88983180 -1903681456</internalNodes>
          <leafValues>
            -4.9341875314712524e-01 2.0972181856632233e-01</leafValues></_>
        <_>
          <internalNodes>
            0 -1 175 816577698 -1877880767 1593427389 -1813654883
            1170545577 -74198669 327748408 800053980</internalNodes>
          <leafValues>
            -3.6508846282958984e-01 2.8004235029220581e-01</leafValues></_>
        <_>
          <internalNodes>
            0 -1 52 172818303 707710414 -435062531 -1528012336 43707039
            -1945392971 -606351495 -1435108367</internalNodes>
          <leafValues>
            -3.6694118380546570e-01 2.7567055821418762e-01</leafValues></_>
        <_>
          <internalNodes>
            0 -1 112 -761761274 -436929294 -820518863 1873363497
            789172618 -346696573 2001542027 1827375631</internalNodes>
          <leafValues>
            -3.4206935763359070e-01 2.9731899499893188e-01</leafValues></_>
        <_>
          <internalNodes>
            0 -1 232 -92296021 -1947289642 1039134581 -1099452564
            -1925252437 -1393567756 -1308664577 -839127957</internalNodes>
          <leafValues>
            -2.1490018069744110e-01 4.8365834355354309e-01</leafValues></_></weakClassifiers></_>
    <!-- stage 2 -->
    <_>
      <maxWeakCount>58</maxWeakCount>
      <stageThreshold>-2.5361609458923340e-01</stageThreshold>
      <weakClassifiers>
        <_>
          <internalNodes>
            0 -1 192 -65 -2228769 -43122755 -73403473 -671109333 -672865
            1006571275 -12582977</internalNodes>
          <leafValues>
            -5.2065706253051758e-01 3.0560272932052612e-01</leafValues></_>
        <_>
          <internalNodes>
            0 -1 11 -271581201 705095406 1616888031 706922530
            -1172571717 577169730 633729487 -1050148865</internalNodes>
          <leafValues>
            -3.7616831064224243e-01 3.1637102365493774e-01</leafValues></_>
        <_>
          <internalNodes>
            0 -1 58 585105719 1037118387 33499423 1060974124 -1089130565
            -1342230581 -335926625 -1358353016</internalNodes>
          <leafValues>
            -2.7016147971153259e-01 3.8498008251190186e-01</leafValues></_>
        <_>
          <internalNodes>
            0 -1 137 -556441893 -573499907 -1856996897 857898270
            -213159682 -119142343 -653267206 -1910503120</internalNodes>
          <leafValues>
            -3.0446377396583557e-01 3.0484437942504883e-01</leafValues></_>
        <_>
          <internalNodes>
            0 -1 217 -11538453 -280241297 -476080832 -685058147
            -546323717 -799016731 1416840513 1171776743</internalNodes>
          <leafValues>
            -3.1379494071006775e-01 2.8714874386787415e-01</leafValues></_>
        <_>
          <internalNodes>
            0 -1 179 -17306092 1029530916 1334619611 624734071 -6903052
            -741396658 1581570286 959839551</internalNodes>
          <leafValues>
            -3.4042710065841675e-01 2.6487898826599121e-01</leafValues></_>
        <_>
          <internalNodes>
            0 -1 109 -1725238279 -8457080 -1074292749 -35269447
            -1364554053 -17977474 -1947476262 -1108406848</internalNodes>
          <leafValues>
            -1.9101217389106750e-01 4.1837340593338013e-01</leafValues></_>
        <_>
          <internalNodes>
            0 -1 21 -546853881 -80763605 -904779757 576965991 -176857593
            -11509995 -2124256958 1882717015</internalNodes>
          <leafValues>
            -3.5082611441612244e-01 2.4053242802619934e-01</leafValues></_>
        <_>
          <internalNodes>
            0 -1 165 1683618800 1484189908 -1057725847 -93864337
            1348750762 -1125194849 1962077071 934275935</internalNodes>
          <leafValues>
            -3.2288241386413574e-01 2.4026860296726227e-01</leafValues></_>
        <_>
          <internalNodes>
            0 -1 111 1915004868 -1157733417 1706801042 -67459688
            -1331120707 -4592969 -1795324704 916981632</internalNodes>
          <leafValues>
            -4.1354835033416748e-01 1.9420260190963745e-01</leafValues></_>
        <_>
          <internalNodes>
            0 -1 170 -1073784361 -868946203 -1157169936 -1465746806
            -916718471 623245827 2145353856 135258386</internalNodes>
          <leafValues>
            -3.9669707417488098e-01 1.7516145110130310e-01</leafValues></_>
        <_>
          <internalNodes>
            0 -1 102 2129997364 -1404755404 -428055563 914161039
            -67420161 -274784914 -578503556 549214245</internalNodes>
          <leafValues>
            -3.8749113678932190e-01 1.9198457896709442e-01</leafValues></_>
        <_>
          <internalNodes>
            0 -1 185 -421081896 -190759792 -437404395 -306842124
            1655300328 -1695555184 -822131539 -984761223</internalNodes>
          <leafValues>
            -3.1770175695419312e-01 2.2608776390552521e-01</leafValues></_>
        <_>
          <internalNodes>
            0 -1 240 -359406962 -1027026284 1097851778 1821032796
            1393967639 20996097 1088836484 -789061449</internalNodes>
          <leafValues>
            -2.8574159741401672e-01 2.5358688831329346e-01</leafValues></_>
        <_>
          <internalNodes>
            0 -1 46 2127359140 1574481567 -1726256034 -1478423539
            1487234885 -1242187525 2018473918 687296389</internalNodes>
          <leafValues>
            -3.3428654074668884e-01 2.0367081463336945e-01</leafValues></_>
        <_>
          <internalNodes>
            0 -1 3 -277873665 -68224078 2138536993 -676402060 223340350
            -1368981763 301927347 -858499117</internalNodes>
          <leafValues>
            -2.2795583307743073e-01 3.2908874750137329e-01</leafValues></_>
        <_>
          <internalNodes>
            0 -1 110 1652505202 -929635620 -1132274283 -260204302
            -784156406 -809219907 -763571776 -1050299710</internalNodes>
          <leafValues>
            -3.0692070722579956e-01 2.3709252476692200e-01</leafValues></_>
        <_>
          <internalNodes>
            0 -1 127 1759278072 136344574 -1864625151 -1347147412
            1072852306 578245100 1065229058 733817765</internalNodes>
          <leafValues>
            -4.1070091724395752e-01 1.6970016062259674e-01</leafValues></_>
        <_>
          <internalNodes>
            0 -1 209 -1099698593 -672825793 -16778513 -251724167
            -59253154 -563286306 -1888296193 -633340965</internalNodes>
          <leafValues>
            -2.1143800020217896e-01 3.3984559774398804e-01</leafValues></_>
        <_>
          <internalNodes>
            0 -1 20 -1345903815 -1770461382 -1065479058 -1566391648
            -1167570111 -533955567 -1064743936 1080248902</internalNodes>
          <leafValues>
            -4.6009504795074463e-01 1.5537650883197784e-01</leafValues></_>
        <_>
          <internalNodes>
            0 -1 207 -270533749 -1477443921 -419452749 -1814063236
            -1107335393 -1376858225 -965230102 -839133457</internalNodes>
          <leafValues>
            -2.0155224204063416e-01 3.6052742600440979e-01</leafValues></_>
        <_>
          <internalNodes>
            0 -1 193 1536138769 1350303295 -1212420227 -1075317017
            1035443377 -60318209 1056851114 750904035</internalNodes>
          <leafValues>
            -2.4982129037380219e-01 2.8345048427581787e-01</leafValues></_>
        <_>
          <internalNodes>
            0 -1 135 1955642648 1353976060 165791350 -317151040
            974144912 -1422523981 869423348 186320034</internalNodes>
          <leafValues>
            -3.7212190032005310e-01 1.9606034457683563e-01</leafValues></_>
        <_>
          <internalNodes>
            0 -1 219 1895558943 1467942265 2125952631 634650471
            -168848892 1115127653 -598285314 -1269305506</internalNodes>
          <leafValues>
            -2.4682843685150146e-01 3.0052220821380615e-01</leafValues></_>
        <_>
          <internalNodes>
            0 -1 53 1736591419 -1899584002 -879386813 -807499110
            1866130061 -822128055 -75297933 -1906476063</internalNodes>
          <leafValues>
            -3.0739486217498779e-01 2.4425813555717468e-01</leafValues></_>
        <_>
          <internalNodes>
            0 -1 91 -1610661025 1608193097 1581255153 137930 -85996709
            -365348863 -1648190482 -215852222</internalNodes>
          <leafValues>
            -3.0516150593757629e-01 2.3179055750370026e-01</leafValues></_>
        <_>
          <internalNodes>
            0 -1 96 420546760 337971700 16643697 1057161753 1447007408
            961370357 -1010847822 927970878</internalNodes>
          <leafValues>
            -3.6868241429328918e-01 2.0298629999160767e-01</leafValues></_>
        <_>
          <internalNodes>
            0 -1 97 -1816429774 1494547861 1117967872 99889655
            1332001268 688137099 -86986571 80694747</internalNodes>
          <leafValues>
            -3.2056713104248047e-01 2.3255783319473267e-01</leafValues></_>
        <_>
          <internalNodes>
            0 -1 2 -510417458 -52864010 -1802596282 -78658102 -289797185
            -628031475 2006697863 1146544821</internalNodes>
          <leafValues>
            -3.3938792347908020e-01 2.2235377132892609e-01</leafValues></_>
        <_>
          <internalNodes>
            0 -1 194 2077740960 -1398892311 1304514823 2077087125
            -154486238 -821357672 128660977 1281343736</internalNodes>
          <leafValues>
            -3.4809577465057373e-01 2.0948660373687744e-01</leafValues></_>
        <_>
          <internalNodes>
            0 -1 67 771928213 -320803945 2065231440 -329499963
            1842881088 -815562216 1532280149 -334960988</internalNodes>
          <leafValues>
            -3.5348969697952271e-01 2.0496009290218353e-01</leafValues></_>
        <_>
          <internalNodes>
            0 -1 187 -1858857840 316625007 1976058587 -1162216470
            793449032 -209509999 -1757275140 -1925426871</internalNodes>
          <leafValues>
            -4.1939032077789307e-01 1.7055724561214447e-01</leafValues></_>
        <_>
          <internalNodes>
            0 -1 149 -161714792 1373151513 -581628668 1026204537
            -1416055143 1872028037 929206719 727388382</internalNodes>
          <leafValues>
            -2.5866025686264038e-01 2.8341203927993774e-01</leafValues></_>
        <_>
          <internalNodes>
            0 -1 33 1313801859 12454987 -1339919998 818576256 1485306448
            1074724882 -1412615349 -709628953</internalNodes>
          <leafValues>
            -2.8899735212326050e-01 2.5716590881347656e-01</leafValues></_>
        <_>
          <internalNodes>
            0 -1 227 -1725572933 -676724745 -604979980 1850711287
            1421663484 -977527361 -1957335847 -724699569</internalNodes>
          <leafValues>
            -2.0746774971485138e-01 3.5691788792610168e-01</leafValues></_>
        <_>
          <internalNodes>
            0 -1 51 -1777305259 855958133 -289013100 2145652358
            690986869 763927231 -518402792 1367084941</internalNodes>
          <leafValues>
            -3.2197275757789612e-01 2.3679251968860626e-01</leafValues></_>
        <_>
          <internalNodes>
            0 -1 65 -1901272197 -1213824047 -1074583599 -570577692
            771470431 -1397915662 266300883 -906738473</internalNodes>
          <leafValues>
            -2.6486226916313171e-01 2.8129157423973083e-01</leafValues></_>
        <_>
          <internalNodes>
            0 -1 62 -84181781 -672192918 -1200130055 -92293506
            -1376031670 -350455547 4124635 -14682709</internalNodes>
          <leafValues>
            -1.8513986468315125e-01 4.0692377090454102e-01</leafValues></_>
        <_>
          <internalNodes>
            0 -1 99 469191680 161219534 -934054125 -1232809679
            1126195449 2075593355 1816256049 519598734</internalNodes>
          <leafValues>
            -4.1740480065345764e-01 1.7788909375667572e-01</leafValues></_>
        <_>
          <internalNodes>
            0 -1 156 150875184 1711830015 -796635217 -330538309
            -2032258795 -1191584893 1984840976 801908228</internalNodes>
          <leafValues>
            -5.5401682853698730e-01 1.2159490585327148e-01</leafValues></_>
        <_>
          <internalNodes>
            0 -1 228 1791750658 894718839 -1933541081 -1860183569
            1582789168 -1299665631 -1197103412 -856294450</internalNodes>
          <leafValues>
            -2.9459440708160400e-01 2.3568044602870941e-01</leafValues></_>
        <_>
          <internalNodes>
            0 -1 176 -1571301908 -900352028 189745856 -1444680375
            370269100 -238839932 -7667750 202082083</internalNodes>
          <leafValues>
            -2.9375424981117249e-01 2.4415501952171326e-01</leafValues></_>
        <_>
          <internalNodes>
            0 -1 7 816881289 -1340415078 -234878100 -1140155702
            1752117769 -402632702 -1693778827 -489188009</internalNodes>
          <leafValues>
            -3.0714759230613708e-01 2.4918469786643982e-01</leafValues></_>
        <_>
          <internalNodes>
            0 -1 39 863895423 213367670 -956694937 1680796259 -561331
            -1502232594 -738857920 -1023659363</internalNodes>
          <leafValues>
            -2.4995729327201843e-01 2.9544061422348022e-01</leafValues></_>
        <_>
          <internalNodes>
            0 -1 94 -1869549919 2109134850 -648281829 -411526245
            940826605 418107323 -1275184147 850726407</internalNodes>
          <leafValues>
            -3.0198830366134644e-01 2.4440442025661469e-01</leafValues></_>
        <_>
          <internalNodes>
            0 -1 122 -2073231892 896885478 -1626615578 -1126713024
            1907864038 -524138089 2073430827 -2083171501</internalNodes>
          <leafValues>
            -2.9309052228927612e-01 2.5479602813720703e-01</leafValues></_>
        <_>
          <internalNodes>
            0 -1 237 -100929283 209073791 -1124314397 1175314413
            -167904187 -92471305 1547614850 -497569950</internalNodes>
          <leafValues>
            -2.0762583613395691e-01 3.4546789526939392e-01</leafValues></_>
        <_>
          <internalNodes>
            0 -1 88 -1289764993 1960636931 -268279728 -920324518
            1405669237 -1646980738 2023376467 1312775751</internalNodes>
          <leafValues>
            -2.9610693454742432e-01 2.5312626361846924e-01</leafValues></_>
        <_>
          <internalNodes>
            0 -1 196 2137152625 -178824865 1225051270 369455367
            1038504700 -508049000 -89359431 975521588</internalNodes>
          <leafValues>
            -3.7053647637367249e-01 2.0598965883255005e-01</leafValues></_>
        <_>
          <internalNodes>
            0 -1 5 -164374306 1338962030 -636186622 -318205886 696947570
            1678082626 1375740275 -6823018</internalNodes>
          <leafValues>
            -3.0887785553932190e-01 2.3923340439796448e-01</leafValues></_>
        <_>
          <internalNodes>
            0 -1 216 -1627391917 345430874 1359230848 626701122
            1037007537 715367944 1342955633 -1066036739</internalNodes>
          <leafValues>
            -3.3199238777160645e-01 2.2106301784515381e-01</leafValues></_>
        <_>
          <internalNodes>
            0 -1 131 1920453419 272087013 1073739566 1072693103
            888628477 -1208129155 -46731733 -1695204818</internalNodes>
          <leafValues>
            -2.4870084226131439e-01 2.9310235381126404e-01</leafValues></_>
        <_>
          <internalNodes>
            0 -1 49 -85217301 2013134703 2139029247 -266436981
            -553786356 1830715202 -864298044 -85598210</internalNodes>
          <leafValues>
            -2.1952615678310394e-01 3.3198547363281250e-01</leafValues></_>
        <_>
          <internalNodes>
            0 -1 163 739546708 1063064399 -965674530 -262279989
            -1049725972 -15783735 -1082004353 596118397</internalNodes>
          <leafValues>
            -4.0280032157897949e-01 1.8883262574672699e-01</leafValues></_>
        <_>
          <internalNodes>
            0 -1 31 -423205142 469020114 -757291925 1365345220
            -1668002637 -91666359 -17466383 -85115252</internalNodes>
          <leafValues>
            -2.7091288566589355e-01 2.7808880805969238e-01</leafValues></_>
        <_>
          <internalNodes>
            0 -1 56 -1657239906 634707367 -1777848720 -269211433
            1515577272 514311548 -187422706 1012893860</internalNodes>
          <leafValues>
            -3.3316540718078613e-01 2.1403177082538605e-01</leafValues></_>
        <_>
          <internalNodes>
            0 -1 169 1593261787 -581963805 -268447516 1299045939
            -286818646 905772850 1404563020 -56459526</internalNodes>
          <leafValues>
            -2.2502018511295319e-01 3.2209923863410950e-01</leafValues></_>
        <_>
          <internalNodes>
            0 -1 125 1213363399 1609432631 -1380078675 -856819226
            -1619141392 -598409346 -65617755 -796733317</internalNodes>
          <leafValues>
            -2.6002627611160278e-01 2.7615380287170410e-01</leafValues></_></weakClassifiers></_>
    <!-- stage 3 -->
    <_>
      <maxWeakCount>68</maxWeakCount>
      <stageThreshold>-3.1747168302536011e-01</stageThreshold>
      <weakClassifiers>
        <_>
          <internalNodes>
            0 -1 181 -65539 -68865 -4663841 -33719332 -14899267
            -124010020 -1347437571 -1078407684</internalNodes>
          <leafValues>
            -6.0515165328979492e-01 2.3825429379940033e-02</leafValues></_>
        <_>
          <internalNodes>
            0 -1 9 -1024458757 -492115010 -318784143 -169493014 75298811
            1114568933 1713372151 -973086217</internalNodes>
          <leafValues>
            -3.0174469947814941e-01 3.3760365843772888e-01</leafValues></_>
        <_>
          <internalNodes>
            0 -1 226 -6397 -541213905 -1082153449 -612892701 2099998216
            1596419865 -285242360 -75503985</internalNodes>
          <leafValues>
            -2.5090467929840088e-01 3.4261402487754822e-01</leafValues></_>
        <_>
          <internalNodes>
            0 -1 104 -36325159 -136319513 -772754789 -210796297
            -46032961 -570558473 1676587707 2142218923</internalNodes>
          <leafValues>
            -2.3105958104133606e-01 3.6186805367469788e-01</leafValues></_>
        <_>
          <internalNodes>
            0 -1 48 -50346001 -253759879 -1493246282 -218751124
            -154686206 1951792902 -195100822 -266338577</internalNodes>
          <leafValues>
            -2.3564888536930084e-01 2.9589271545410156e-01</leafValues></_>
        <_>
          <internalNodes>
            0 -1 178 -136067 1568615691 775435229 540622654 1610038172
            -33914892 3399423 995621819</internalNodes>
          <leafValues>
            -2.2187662124633789e-01 3.0342593789100647e-01</leafValues></_>
        <_>
          <internalNodes>
            0 -1 150 -581114864 1141036064 -502993807 -2003835519
            1847424529 1444764691 -645996493 -1911568085</internalNodes>
          <leafValues>
            -2.8749269247055054e-01 2.2897762060165405e-01</leafValues></_>
        <_>
          <internalNodes>
            0 -1 29 -423466310 1009386230 -1462367471 1372727074
            2017542565 600108225 -654027781 -43570313</internalNodes>
          <leafValues>
            -2.8633949160575867e-01 2.2020997107028961e-01</leafValues></_>
        <_>
          <internalNodes>
            0 -1 231 -14156629 1877671718 -226560269 1866137524
            -269496929 -2023949188 -771893851 -778048074</internalNodes>
          <leafValues>
            -2.4595443904399872e-01 2.6216530799865723e-01</leafValues></_>
        <_>
          <internalNodes>
            0 -1 129 -737875820 -505312784 1104642963 -1223720009
            1185964350 -612321332 612278703 2112686638</internalNodes>
          <leafValues>
            -2.9217520356178284e-01 2.1604759991168976e-01</leafValues></_>
        <_>
          <internalNodes>
            0 -1 78 -1683300374 -94182864 -813697251 -10004620
            -2045314051 -906224137 188200955 -644919151</internalNodes>
          <leafValues>
            -2.2048836946487427e-01 2.9978772997856140e-01</leafValues></_>
        <_>
          <internalNodes>
            0 -1 66 753667844 -1562598407 793244149 -1883485860
            587010581 -1077259511 741150245 746598200</internalNodes>
          <leafValues>
            -6.2270438671112061e-01 1.1129344254732132e-01</leafValues></_>
        <_>
          <internalNodes>
            0 -1 92 -553949489 -134280466 1044274471 526630655
            -537111974 -70296212 -159547926 -77380737</internalNodes>
          <leafValues>
            -1.8552280962467194e-01 3.3656752109527588e-01</leafValues></_>
        <_>
          <internalNodes>
            0 -1 157 1151289048 1222779634 -586498474 1505218526
            -1357412988 366998842 899621376 91139587</internalNodes>
          <leafValues>
            -3.9509937167167664e-01 1.5253505110740662e-01</leafValues></_>
        <_>
          <internalNodes>
            0 -1 218 267366319 -1549074712 -1375804137 -687884881
            -1092638581 -2002403611 1173446029 -933239057</internalNodes>
          <leafValues>
            -2.2286485135555267e-01 2.6578560471534729e-01</leafValues></_>
        <_>
          <internalNodes>
            0 -1 152 1042297713 -671326377 2147385067 -537059350
            -1518498091 -688062633 -1351721729 -1343224180</internalNodes>
          <leafValues>
            -2.2265008091926575e-01 2.6237434148788452e-01</leafValues></_>
        <_>
          <internalNodes>
            0 -1 59 -1361178866 1716388118 1486255992 650277598
            428294661 -2064726239 1119505124 -496179980</internalNodes>
          <leafValues>
            -4.5897725224494934e-01 1.2306195497512817e-01</leafValues></_>
        <_>
          <internalNodes>
            0 -1 83 1581326929 735859897 -1665230216 884682434 810150956
            257616891 -101152587 1052479106</internalNodes>
          <leafValues>
            -3.2715141773223877e-01 1.7516064643859863e-01</leafValues></_>
        <_>
          <internalNodes>
            0 -1 177 2075057873 -596099855 2147482623 2025311914
            -314663939 -1111826441 -458678277 -1107612357</internalNodes>
          <leafValues>
            -1.7553493380546570e-01 3.2513087987899780e-01</leafValues></_>
        <_>
          <internalNodes>
            0 -1 138 243281269 -1433904946 1292393435 -855857299
            -1985515166 -1147436693 -1141925594 -550745084</internalNodes>
          <leafValues>
            -3.8489738106727600e-01 1.5143516659736633e-01</leafValues></_>
        <_>
          <internalNodes>
            0 -1 223 -49084005 -104310186 1589985496 1305678407
            -1166087284 -1144577432 -397606043 975189651</internalNodes>
          <leafValues>
            -2.7902966737747192e-01 2.0530778169631958e-01</leafValues></_>
        <_>
          <internalNodes>
            0 -1 168 549973410 -1181568236 1918051132 -471217313
            1880447151 -251645888 -378307074 953438873</internalNodes>
          <leafValues>
            -2.7721822261810303e-01 2.1308071911334991e-01</leafValues></_>
        <_>
          <internalNodes>
            0 -1 153 -547402347 -539213323 -791834818 -1149455564
            685308568 -206908488 -1428392968 -1669673104</internalNodes>
          <leafValues>
            -2.9417243599891663e-01 1.9678463041782379e-01</leafValues></_>
        <_>
          <internalNodes>
            0 -1 40 -282392737 -298946238 1124584142 -833739598
            371552463 1494009856 1896127862 1154970837</internalNodes>
          <leafValues>
            -3.6543270945549011e-01 1.6023425757884979e-01</leafValues></_>
        <_>
          <internalNodes>
            0 -1 214 1437032692 135157944 -606514812 -87126559
            -790812260 -431952222 898159586 -995969035</internalNodes>
          <leafValues>
            -3.0990043282508850e-01 1.9171746075153351e-01</leafValues></_>
        <_>
          <internalNodes>
            0 -1 95 -1277183182 1576115137 1423759156 -1850647608
            2105289483 1602125809 -1221657065 1916782847</internalNodes>
          <leafValues>
            -2.2324799001216888e-01 2.6577097177505493e-01</leafValues></_>
        <_>
          <internalNodes>
            0 -1 63 -21001989 -1019261759 -289501219 951320249 601761134
            101687253 -676069386 -227813901</internalNodes>
          <leafValues>
            -2.0818972587585449e-01 2.8857934474945068e-01</leafValues></_>
        <_>
          <internalNodes>
            0 -1 47 1843283803 -1273075010 -907897766 -1205256646
            1280253544 1253262425 1501218897 1175374034</internalNodes>
          <leafValues>
            -3.1873214244842529e-01 1.8878006935119629e-01</leafValues></_>
        <_>
          <internalNodes>
            0 -1 120 788523902 317812838 -798172416 -979459962
            -1603749118 -635659868 2132139506 1553217210</internalNodes>
          <leafValues>
            -2.9085022211074829e-01 2.0124530792236328e-01</leafValues></_>
        <_>
          <internalNodes>
            0 -1 23 -339939458 895918289 -1014263467 2080272354
            189377444 -1276186669 1539008381 -563313595</internalNodes>
          <leafValues>
            -2.5395312905311584e-01 2.3473112285137177e-01</leafValues></_>
        <_>
          <internalNodes>
            0 -1 28 887110256 -2010190138 247654171 156181869 -695929519
            -1946465581 2022469502 1994269734</internalNodes>
          <leafValues>
            -3.6685046553611755e-01 1.6747398674488068e-01</leafValues></_>
        <_>
          <internalNodes>
            0 -1 133 -646092914 -251612352 -2011956596 -2069167562
            1203079492 -67108735 1052635697 134940183</internalNodes>
          <leafValues>
            -3.2696834206581116e-01 1.7578727006912231e-01</leafValues></_>
        <_>
          <internalNodes>
            0 -1 164 -1463927275 1586569343 -60447745 -1575065089
            -1093682535 -140941144 -1401840011 -1086670280</internalNodes>
          <leafValues>
            -3.0356705188751221e-01 1.9633165001869202e-01</leafValues></_>
        <_>
          <internalNodes>
            0 -1 224 -295856033 -1024651401 -806633689 2076180299
            -277094772 -560996998 -2101955605 -766780065</internalNodes>
          <leafValues>
            -1.5667966008186340e-01 3.7545365095138550e-01</leafValues></_>
        <_>
          <internalNodes>
            0 -1 208 1065860777 -1412531774 -2108460719 -103394638
            -1514626117 -2112964718 1232853369 -2068130615</internalNodes>
          <leafValues>
            -2.5633960962295532e-01 2.3183640837669373e-01</leafValues></_>
        <_>
          <internalNodes>
            0 -1 174 637484133 211569087 -1718270716 -309460721
            2066561108 2100399253 -1731874288 173832518</internalNodes>
          <leafValues>
            -4.2726781964302063e-01 1.3796699047088623e-01</leafValues></_>
        <_>
          <internalNodes>
            0 -1 72 4502324 479529697 294357977 1154984950 -1436469130
            833358164 1046489508 796145407</internalNodes>
          <leafValues>
            -3.9164164662361145e-01 1.4985404908657074e-01</leafValues></_>
        <_>
          <internalNodes>
            0 -1 18 -378536993 1492776322 2062576312 1965586112
            1733753460 1419878232 -1787363665 -706233373</internalNodes>
          <leafValues>
            -1.8716089427471161e-01 3.3642810583114624e-01</leafValues></_>
        <_>
          <internalNodes>
            0 -1 79 -2145395536 -1897745338 1090634261 2045329696
            -1481966698 -1070584176 231522924 209999248</internalNodes>
          <leafValues>
            -3.6964386701583862e-01 1.6670484840869904e-01</leafValues></_>
        <_>
          <internalNodes>
            0 -1 12 -1141379085 961408173 -1153453 -948704785
            -1141769328 -1230639378 -1151865404 -239136774</internalNodes>
          <leafValues>
            -1.6895222663879395e-01 3.4392961859703064e-01</leafValues></_>
        <_>
          <internalNodes>
            0 -1 199 -1190290193 -936509098 328450072 -1518044464
            287001340 -78279806 -248694544 -1676747104</internalNodes>
          <leafValues>
            -3.1832167506217957e-01 1.8635885417461395e-01</leafValues></_>
        <_>
          <internalNodes>
            0 -1 184 433404870 109491133 822296004 -187282442 1651795752
            -607584128 845512451 737311842</internalNodes>
          <leafValues>
            -3.2897961139678955e-01 1.7819246649742126e-01</leafValues></_>
        <_>
          <internalNodes>
            0 -1 161 1146408368 813696548 -1234838401 1031160018
            423279608 -170098441 1267083582 981940195</internalNodes>
          <leafValues>
            -2.8719061613082886e-01 2.0912010967731476e-01</leafValues></_>
        <_>
          <internalNodes>
            0 -1 204 843339349 98045375 -553424394 1122423452
            -2090786032 -876141638 -148118176 -394629232</internalNodes>
          <leafValues>
            -3.8537573814392090e-01 1.5761318802833557e-01</leafValues></_>
        <_>
          <internalNodes>
            0 -1 160 -649832700 -638124940 -1627423912 -34217079
            -1520050824 -249508091 1852097938 525309371</internalNodes>
          <leafValues>
            -2.2671084105968475e-01 2.6375445723533630e-01</leafValues></_>
        <_>
          <internalNodes>
            0 -1 90 1943912459 1328779163 -2078099940 944863492
            -628319672 1494362113 -80436484 -129241373</internalNodes>
          <leafValues>
            -2.2972567379474640e-01 2.6516696810722351e-01</leafValues></_>
        <_>
          <internalNodes>
            0 -1 167 365374982 260311238 -1987530880 -1349362939
            1457218751 1259208955 -288268292 715544834</internalNodes>
          <leafValues>
            -4.0550833940505981e-01 1.6369946300983429e-01</leafValues></_>
        <_>
          <internalNodes>
            0 -1 225 -504950771 2031911329 -1722445669 -656907732
            -1461829476 -607418606 -1274585652 -99995713</internalNodes>
          <leafValues>
            -2.6729261875152588e-01 2.3161230981349945e-01</leafValues></_>
        <_>
          <internalNodes>
            0 -1 93 -472437259 1010236093 1458433313 -1910544955
            -27971006 -813924491 -537434317 -1699771914</internalNodes>
          <leafValues>
            -2.1458597481250763e-01 2.9976594448089600e-01</leafValues></_>
        <_>
          <internalNodes>
            0 -1 74 -1982142182 840608466 -2078974938 737325630
            280955637 -1691279315 1400373330 1219615832</internalNodes>
          <leafValues>
            -3.5138726234436035e-01 1.7529188096523285e-01</leafValues></_>
        <_>
          <internalNodes>
            0 -1 36 -1056047174 -1088095576 2007940342 -36700188
            -963642166 305917556 223162613 -786751307</internalNodes>
          <leafValues>
            -2.2293390333652496e-01 2.8029423952102661e-01</leafValues></_>
        <_>
          <internalNodes>
            0 -1 198 99023360 1054929136 1862357905 -1093264907
            869881224 -1303700992 -164876908 418478992</internalNodes>
          <leafValues>
            -3.8309964537620544e-01 1.6228434443473816e-01</leafValues></_>
        <_>
          <internalNodes>
            0 -1 155 637368119 813421238 -87758263 -889404693 -572103409
            -235163661 474208984 -884684143</internalNodes>
          <leafValues>
            -2.3672875761985779e-01 2.6212963461875916e-01</leafValues></_>
        <_>
          <internalNodes>
            0 -1 203 1229904688 -2008745537 -645729435 -1530273297
            1125573759 -122640346 -516390014 820371874</internalNodes>
          <leafValues>
            -3.2448446750640869e-01 1.8862946331501007e-01</leafValues></_>
        <_>
          <internalNodes>
            0 -1 77 815625467 459484861 1525181497 -734277967
            -1124561704 -629769482 2092691819 -1088779097</internalNodes>
          <leafValues>
            -2.0277935266494751e-01 3.1115677952766418e-01</leafValues></_>
        <_>
          <internalNodes>
            0 -1 139 -791228959 813298013 -1946117700 -17847408
            -440136370 -70411893 -1518082933 952225314</internalNodes>
          <leafValues>
            -2.3968935012817383e-01 2.5786688923835754e-01</leafValues></_>
        <_>
          <internalNodes>
            0 -1 114 1464000396 915955669 -1366394324 -5132389
            -573221392 905969599 -1342789914 -130712059</internalNodes>
          <leafValues>
            -2.3131252825260162e-01 2.7448382973670959e-01</leafValues></_>
        <_>
          <internalNodes>
            0 -1 222 -1350058457 -292766774 -264126363 -470874466
            1106230187 725270688 1080594868 -721716011</internalNodes>
          <leafValues>
            -2.8652393817901611e-01 2.1956677734851837e-01</leafValues></_>
        <_>
          <internalNodes>
            0 -1 107 -8446017 -753821223 804364264 -865346349 -573849745
            -914723238 -23738406 -38010993</internalNodes>
          <leafValues>
            -1.1973368376493454e-01 5.1670730113983154e-01</leafValues></_>
        <_>
          <internalNodes>
            0 -1 81 1837380036 -1486190195 1246634722 722659951
            1367785249 -194879628 -810146807 51252008</internalNodes>
          <leafValues>
            -4.1243904829025269e-01 1.5969026088714600e-01</leafValues></_>
        <_>
          <internalNodes>
            0 -1 121 144319637 699030611 164414859 -373515364
            -1415837584 -356052589 -1712146579 -1200055875</internalNodes>
          <leafValues>
            -3.4887424111366272e-01 1.7591077089309692e-01</leafValues></_>
        <_>
          <internalNodes>
            0 -1 26 554153849 1040940967 1112416146 2118302404
            -225824411 1944052413 658238674 -1849234602</internalNodes>
          <leafValues>
            -2.6692867279052734e-01 2.3505471646785736e-01</leafValues></_>
        <_>
          <internalNodes>
            0 -1 86 1600054922 332067627 914788673 -653869290 -636919975
            -1584268143 2085058797 2063417387</internalNodes>
          <leafValues>
            -2.5881651043891907e-01 2.5099724531173706e-01</leafValues></_>
        <_>
          <internalNodes>
            0 -1 159 143786000 666166614 -249261947 1765985405
            1981115174 1000464443 1271001586 -1372323548</internalNodes>
          <leafValues>
            -4.5160466432571411e-01 1.4028424024581909e-01</leafValues></_>
        <_>
          <internalNodes>
            0 -1 25 648023858 -1454464724 -1469987363 1313481492
            1623693233 -1150698753 -2128277199 1271164148</internalNodes>
          <leafValues>
            -4.8184436559677124e-01 1.2647992372512817e-01</leafValues></_>
        <_>
          <internalNodes>
            0 -1 140 -1805201984 -1732870664 2138927006 1567186367
            -1808060215 -1982317073 -1892393106 1002125035</internalNodes>
          <leafValues>
            -2.3440636694431305e-01 2.6485711336135864e-01</leafValues></_>
        <_>
          <internalNodes>
            0 -1 80 -962662602 -1020071931 -1416263275 -1547657303
            838733975 -577979217 -1412811339 939459654</internalNodes>
          <leafValues>
            -3.0301225185394287e-01 2.1424201130867004e-01</leafValues></_>
        <_>
          <internalNodes>
            0 -1 101 -1338544604 -623504517 -398189193 1242978676
            1805916248 -785893013 575455841 -133156572</internalNodes>
          <leafValues>
            -4.5316085219383240e-01 1.4479765295982361e-01</leafValues></_></weakClassifiers></_>
    <!-- stage 4 -->
    <_>
      <maxWeakCount>43</maxWeakCount>
      <stageThreshold>3.9239662885665894e-01</stageThreshold>
      <weakClassifiers>
        <_>
          <internalNodes>
            0 -1 141 -1781541680 -600000972 -356624908 -738857480
            -654462736 -75696156 -932185928 -115417969</internalNodes>
          <leafValues>
            1.2500000000000000e-01 6.8758529424667358e-01</leafValues></_>
        <_>
          <internalNodes>
            0 -1 14 -252452662 1279639 1491209005 1407446623 -768258317
            -2080721667 -742994470 -607141942</internalNodes>
          <leafValues>
            -1.7290815711021423e-01 4.7428834438323975e-01</leafValues></_>
        <_>
          <internalNodes>
            0 -1 195 -132981171 1435566104 -1340894121 67765691
            1103699016 -1131740514 283294411 845343307</internalNodes>
          <leafValues>
            -3.2959407567977905e-01 2.8906884789466858e-01</leafValues></_>
        <_>
          <internalNodes>
            0 -1 55 -214392523 2064415468 -218192067 2038276671
            -885668980 -1109000900 -1787843906 2144317324</internalNodes>
          <leafValues>
            -2.5957947969436646e-01 3.7826943397521973e-01</leafValues></_>
        <_>
          <internalNodes>
            0 -1 124 -764457569 1532956121 -1099530241 1936142207
            -1074340166 -697656 1652277131 -1155376034</internalNodes>
          <leafValues>
            -2.6321479678153992e-01 3.7342843413352966e-01</leafValues></_>
        <_>
          <internalNodes>
            0 -1 105 -801064976 -1814898711 -1581514497 -92304193
            -703382611 1886256127 -902124902 -88629205</internalNodes>
          <leafValues>
            -2.3239424824714661e-01 3.7695536017417908e-01</leafValues></_>
        <_>
          <internalNodes>
            0 -1 191 -1575305 2113920827 -1360089113 -1645166981
            -1116871599 -1000933388 -1661560934 -4595793</internalNodes>
          <leafValues>
            -2.3485696315765381e-01 3.6935386061668396e-01</leafValues></_>
        <_>
          <internalNodes>
            0 -1 76 1339292531 -750555815 1644949353 -936936769
            1425798359 -1000032802 -1655834989 -838745203</internalNodes>
          <leafValues>
            -1.9077524542808533e-01 4.4884476065635681e-01</leafValues></_>
        <_>
          <internalNodes>
            0 -1 143 415767312 -221249424 -785361966 1368227984
            -1878031704 -1500905472 -2013115992 68421648</internalNodes>
          <leafValues>
            -4.5265322923660278e-01 2.0099134743213654e-01</leafValues></_>
        <_>
          <internalNodes>
            0 -1 34 -80305857 -43812099 1647750827 455756775 -429029697
            -269619609 -2009214464 -800881306</internalNodes>
          <leafValues>
            -2.4892494082450867e-01 3.5780164599418640e-01</leafValues></_>
        <_>
          <internalNodes>
            0 -1 144 1231887286 -2090835640 -251427608 -1542979394
            2022800138 -262648832 -1064685566 914309322</internalNodes>
          <leafValues>
            -3.8611608743667603e-01 2.2536200284957886e-01</leafValues></_>
        <_>
          <internalNodes>
            0 -1 148 -1315479883 376515014 -185937744 -1955860062
            -535493 -1202357426 1132367083 -326927221</internalNodes>
          <leafValues>
            -2.1688559651374817e-01 4.0244787931442261e-01</leafValues></_>
        <_>
          <internalNodes>
            0 -1 128 1498333526 1436012949 1141120832 -947240700
            1615876776 1941971075 -1241204024 63124161</internalNodes>
          <leafValues>
            -3.3882001042366028e-01 2.5113081932067871e-01</leafValues></_>
        <_>
          <internalNodes>
            0 -1 68 419440431 1179768441 117742545 1751475308 1344701771
            1107296778 1887335170 -1908661456</internalNodes>
          <leafValues>
            -3.3446913957595825e-01 2.5436228513717651e-01</leafValues></_>
        <_>
          <internalNodes>
            0 -1 116 -647966562 -1877995382 -1727987266 -284229372
            1398825400 -1112504160 -1425759526 429006294</internalNodes>
          <leafValues>
            -2.9996395111083984e-01 2.9168850183486938e-01</leafValues></_>
        <_>
          <internalNodes>
            0 -1 89 -779108346 -331087632 35164 -1475706724 1771766544
            402868352 -134012846 -482060604</internalNodes>
          <leafValues>
            -4.0646201372146606e-01 2.1801342070102692e-01</leafValues></_>
        <_>
          <internalNodes>
            0 -1 229 824177283 -1224654848 1342177986 -92159606
            -1034691877 -1584725884 625156416 -574365436</internalNodes>
          <leafValues>
            -2.9852882027626038e-01 2.8316020965576172e-01</leafValues></_>
        <_>
          <internalNodes>
            0 -1 126 -1793177596 -1526440832 -1877896996 -845845630
            -2138947120 1353728001 -259859099 570902402</internalNodes>
          <leafValues>
            -4.4013330340385437e-01 1.9858443737030029e-01</leafValues></_>
        <_>
          <internalNodes>
            0 -1 119 40151986 1494671702 117444688 1645027537 404506072
            -1903689632 50439946 1543819396</internalNodes>
          <leafValues>
            -4.4665223360061646e-01 1.9834604859352112e-01</leafValues></_>
        <_>
          <internalNodes>
            0 -1 115 1564681954 278214087 -2112350986 -1425182210
            1913755064 -1329037167 -1039554288 1289032266</internalNodes>
          <leafValues>
            -3.4843164682388306e-01 2.5698500871658325e-01</leafValues></_>
        <_>
          <internalNodes>
            0 -1 106 1934587523 282169371 1368679497 405049491
            -679214444 -763232123 -788407780 -1411035103</internalNodes>
          <leafValues>
            -2.8670442104339600e-01 3.1736782193183899e-01</leafValues></_>
        <_>
          <internalNodes>
            0 -1 103 1881617456 -164888282 2756922 615333978 -1178500927
            1485359288 -1050457886 1418440810</internalNodes>
          <leafValues>
            -3.2696032524108887e-01 2.7347466349601746e-01</leafValues></_>
        <_>
          <internalNodes>
            0 -1 180 -998887209 -575227981 -822436423 -234983943
            -713167421 -1808083214 -1222211603 -8468837</internalNodes>
          <leafValues>
            -1.7971329391002655e-01 5.0774878263473511e-01</leafValues></_>
        <_>
          <internalNodes>
            0 -1 151 -689056281 -799455023 -26218885 1564208801
            -872637192 -1246412948 -824556134 -1433463869</internalNodes>
          <leafValues>
            -1.7547534406185150e-01 5.0882291793823242e-01</leafValues></_>
        <_>
          <internalNodes>
            0 -1 134 -788521646 1788169461 268492880 1225162885
            1225132631 1915749427 -780006566 1069863881</internalNodes>
          <leafValues>
            -3.0795282125473022e-01 3.0489453673362732e-01</leafValues></_>
        <_>
          <internalNodes>
            0 -1 13 -1709662910 1141925031 -2109353729 -951778205
            329298317 -829915120 -980713472 2059807568</internalNodes>
          <leafValues>
            -3.7177923321723938e-01 2.6127865910530090e-01</leafValues></_>
        <_>
          <internalNodes>
            0 -1 22 1064551940 -2091667766 -218108189 -1291194376
            -838901169 214040399 1992275019 -212877341</internalNodes>
          <leafValues>
            -2.7234596014022827e-01 3.4554919600486755e-01</leafValues></_>
        <_>
          <internalNodes>
            0 -1 10 -555523057 -1713805775 -2010419517 1425421943
            -1799360772 -59131910 -1751668602 -103851815</internalNodes>
          <leafValues>
            -2.0863465964794159e-01 4.6824261546134949e-01</leafValues></_>
        <_>
          <internalNodes>
            0 -1 61 -229293588 1295188261 -2146397246 1497400454
            1518534659 449478657 1744882844 -100609212</internalNodes>
          <leafValues>
            -3.6369287967681885e-01 2.8088596463203430e-01</leafValues></_>
        <_>
          <internalNodes>
            0 -1 24 1078425315 1293836430 -1861906916 -603180984
            26218564 -50067325 268640367 1548474001</internalNodes>
          <leafValues>
            -3.4321430325508118e-01 2.7426472306251526e-01</leafValues></_>
        <_>
          <internalNodes>
            0 -1 98 1618412290 563651737 1812203526 -1167799531
            1363736744 -1610178557 -1778032611 383920332</internalNodes>
          <leafValues>
            -4.2233988642692566e-01 2.3322367668151855e-01</leafValues></_>
        <_>
          <internalNodes>
            0 -1 15 -758732163 610914348 -2147483627 -1927511030
            -913175418 1178646552 -402586894 -1759514334</internalNodes>
          <leafValues>
            -3.2140916585922241e-01 3.0436205863952637e-01</leafValues></_>
        <_>
          <internalNodes>
            0 -1 45 -358350690 273821363 335549689 1024486727 537610369
            -2004813768 539033849 944197132</internalNodes>
          <leafValues>
            -3.7925168871879578e-01 2.5447264313697815e-01</leafValues></_>
        <_>
          <internalNodes>
            0 -1 235 -644387829 1699074244 -1878865648 -1866448889
            -1987378916 1405288451 -393497070 62038943</internalNodes>
          <leafValues>
            -3.4975439310073853e-01 2.9170277714729309e-01</leafValues></_>
        <_>
          <internalNodes>
            0 -1 147 -840637267 -2139820155 1811201480 490008300
            905252137 -1112146436 -9404562 -1478798199</internalNodes>
          <leafValues>
            -2.8566649556159973e-01 3.5943040251731873e-01</leafValues></_>
        <_>
          <internalNodes>
            0 -1 100 -791260672 -1857518422 -1929346670 -1862172023
            -268404067 -803192680 -880608688 -1643886487</internalNodes>
          <leafValues>
            -3.7308672070503235e-01 2.8032234311103821e-01</leafValues></_>
        <_>
          <internalNodes>
            0 -1 84 134992136 -117259871 -1723496304 -2132981668
            -2079779950 -1849655229 -1837446979 1994915096</internalNodes>
          <leafValues>
            -3.5453563928604126e-01 3.0381467938423157e-01</leafValues></_>
        <_>
          <internalNodes>
            0 -1 87 1116623860 -1898446787 -1444379708 1326514505
            -1416371952 -1582825336 109611208 1175027914</internalNodes>
          <leafValues>
            -4.0881803631782532e-01 2.4244686961174011e-01</leafValues></_>
        <_>
          <internalNodes>
            0 -1 54 1041500898 -968272506 852677484 -1888389433
            -1828385879 -1744551782 -1585171965 1020179120</internalNodes>
          <leafValues>
            -3.6460465192794800e-01 2.7210089564323425e-01</leafValues></_>
        <_>
          <internalNodes>
            0 -1 30 1802752898 546920051 -2041147367 -252669220 321536
            562153762 1074552896 -905247480</internalNodes>
          <leafValues>
            -3.7647777795791626e-01 2.6564660668373108e-01</leafValues></_>
        <_>
          <internalNodes>
            0 -1 190 1451311319 2068418832 268452375 1511456786
            -1677197304 -1265104840 193071869 1758642306</internalNodes>
          <leafValues>
            -3.1293791532516479e-01 3.4303984045982361e-01</leafValues></_>
        <_>
          <internalNodes>
            0 -1 71 -2140814188 641744965 1280836176 59304584 423027040
            2015928451 733582658 998279272</internalNodes>
          <leafValues>
            -4.5442780852317810e-01 2.2737562656402588e-01</leafValues></_>
        <_>
          <internalNodes>
            0 -1 130 485850034 -1575436069 402939908 23122179 1109480002
            1119265058 -1734213234 594512650</internalNodes>
          <leafValues>
            -3.3953869342803955e-01 3.0802845954895020e-01</leafValues></_></weakClassifiers></_></stages>
  <features>
    <_>
      <rect>
        0 0 2 2</rect></_>
    <_>
      <rect>
        0 0 3 3</rect></_>
    <_>
      <rect>
        0 0 10 2</rect></_>
    <_>
      <rect>
        0 2 4 4</rect></_>
    <_>
      <rect>
        0 2 6 6</rect></_>
    <_>
      <rect>
        0 4 2 1</rect></_>
    <_>
      <rect>
        0 4 3 4</rect></_>
    <_>
      <rect>
        0 4 4 14</rect></_>
    <_>
      <rect>
        0 6 9 7</rect></_>
    <_>
      <rect>
        0 8 2 4</rect></_>
    <_>
      <rect>
        0 11 8 10</rect></_>
    <_>
      <rect>
        0 14 2 3</rect></_>
    <_>
      <rect>
        0 15 4 6</rect></_>
    <_>
      <rect>
        0 16 7 6</rect></_>
    <_>
      <rect>
        0 20 2 4</rect></_>
    <_>
      <rect>
        0 20 3 3</rect></_>
    <_>
      <rect>
        0 20 5 6</rect></_>
    <_>
      <rect>
        0 22 2 5</rect></_>
    <_>
      <rect>
        0 25 2 4</rect></_>
    <_>
      <rect>
        0 27 3 6</rect></_>
    <_>
      <rect>
        0 27 7 6</rect></_>
    <_>
      <rect>
        0 38 4 3</rect></_>
    <_>
      <rect>
        0 42 3 2</rect></_>
    <_>
      <rect>
        1 0 5 5</rect></_>
    <_>
      <rect>
        1 3 2 3</rect></_>
    <_>
      <rect>
        1 3 4 10</rect></_>
    <_>
      <rect>
        1 7 7 11</rect></_>
    <_>
      <rect>
        1 17 2 1</rect></_>
    <_>
      <rect>
        1 18 7 5</rect></_>
    <_>
      <rect>
        1 21 2 3</rect></_>
    <_>
      <rect>
        1 21 6 9</rect></_>
    <_>
      <rect>
        1 22 3 3</rect></_>
    <_>
      <rect>
        1 23 1 1</rect></_>
    <_>
      <rect>
        1 25 1 2</rect></_>
    <_>
      <rect>
        1 34 3 4</rect></_>
    <_>
      <rect>
        1 36 3 3</rect></_>
    <_>
      <rect>
        2 2 1 1</rect></_>
    <_>
      <rect>
        2 4 10 7</rect></_>
    <_>
      <rect>
        2 8 7 11</rect></_>
    <_>
      <rect>
        2 11 8 8</rect></_>
    <_>
      <rect>
        2 12 2 2</rect></_>
    <_>
      <rect>
        2 16 6 5</rect></_>
    <_>
      <rect>
        2 27 1 1</rect></_>
    <_>
      <rect>
        2 31 1 1</rect></_>
    <_>
      <rect>
        2 41 3 1</rect></_>
    <_>
      <rect>
        3 15 4 4</rect></_>
    <_>
      <rect>
        3 17 4 4</rect></_>
    <_>
      <rect>
        3 30 4 4</rect></_>
    <_>
      <rect>
        3 35 1 1</rect></_>
    <_>
      <rect>
        3 37 1 1</rect></_>
    <_>
      <rect>
        3 42 3 2</rect></_>
    <_>
      <rect>
        4 13 5 4</rect></_>
    <_>
      <rect>
        4 14 2 1</rect></_>
    <_>
      <rect>
        4 14 3 2</rect></_>
    <_>
      <rect>
        4 14 7 7</rect></_>
    <_>
      <rect>
        4 17 6 4</rect></_>
    <_>
      <rect>
        4 19 5 4</rect></_>
    <_>
      <rect>
        4 20 5 5</rect></_>
    <_>
      <rect>
        4 21 8 2</rect></_>
    <_>
      <rect>
        4 28 1 1</rect></_>
    <_>
      <rect>
        4 35 2 2</rect></_>
    <_>
      <rect>
        4 36 2 3</rect></_>
    <_>
      <rect>
        4 44 1 1</rect></_>
    <_>
      <rect>
        4 45 1 1</rect></_>
    <_>
      <rect>
        5 0 1 1</rect></_>
    <_>
      <rect>
        5 0 4 3</rect></_>
    <_>
      <rect>
        5 0 5 7</rect></_>
    <_>
      <rect>
        5 9 8 12</rect></_>
    <_>
      <rect>
        5 10 7 9</rect></_>
    <_>
      <rect>
        5 11 2 1</rect></_>
    <_>
      <rect>
        5 14 6 6</rect></_>
    <_>
      <rect>
        5 17 4 6</rect></_>
    <_>
      <rect>
        5 19 7 5</rect></_>
    <_>
      <rect>
        5 20 6 7</rect></_>
    <_>
      <rect>
        5 29 4 5</rect></_>
    <_>
      <rect>
        5 30 8 5</rect></_>
    <_>
      <rect>
        5 32 7 5</rect></_>
    <_>
      <rect>
        5 34 3 4</rect></_>
    <_>
      <rect>
        6 1 1 1</rect></_>
    <_>
      <rect>
        6 3 1 1</rect></_>
    <_>
      <rect>
        6 6 5 6</rect></_>
    <_>
      <rect>
        6 9 7 7</rect></_>
    <_>
      <rect>
        6 12 2 1</rect></_>
    <_>
      <rect>
        6 14 5 5</rect></_>
    <_>
      <rect>
        6 14 6 4</rect></_>
    <_>
      <rect>
        6 18 5 5</rect></_>
    <_>
      <rect>
        6 20 3 3</rect></_>
    <_>
      <rect>
        6 25 8 3</rect></_>
    <_>
      <rect>
        6 30 5 5</rect></_>
    <_>
      <rect>
        6 39 1 1</rect></_>
    <_>
      <rect>
        6 40 1 1</rect></_>
    <_>
      <rect>
        6 42 2 2</rect></_>
    <_>
      <rect>
        6 44 1 1</rect></_>
    <_>
      <rect>
        7 14 8 8</rect></_>
    <_>
      <rect>
        7 15 4 4</rect></_>
    <_>
      <rect>
        7 17 4 8</rect></_>
    <_>
      <rect>
        7 18 5 5</rect></_>
    <_>
      <rect>
        7 20 4 8</rect></_>
    <_>
      <rect>
        7 22 3 3</rect></_>
    <_>
      <rect>
        7 23 2 2</rect></_>
    <_>
      <rect>
        7 35 3 4</rect></_>
    <_>
      <rect>
        7 42 1 1</rect></_>
    <_>
      <rect>
        8 0 7 6</rect></_>
    <_>
      <rect>
        8 6 4 11</rect></_>
    <_>
      <rect>
        8 14 6 6</rect></_>
    <_>
      <rect>
        8 17 6 5</rect></_>
    <_>
      <rect>
        8 23 3 2</rect></_>
    <_>
      <rect>
        8 25 4 7</rect></_>
    <_>
      <rect>
        8 35 5 4</rect></_>
    <_>
      <rect>
        9 0 1 1</rect></_>
    <_>
      <rect>
        9 9 5 11</rect></_>
    <_>
      <rect>
        9 13 5 4</rect></_>
    <_>
      <rect>
        9 13 6 6</rect></_>
    <_>
      <rect>
        9 19 5 4</rect></_>
    <_>
      <rect>
        9 20 3 3</rect></_>
    <_>
      <rect>
        9 26 4 3</rect></_>
    <_>
      <rect>
        9 33 3 2</rect></_>
    <_>
      <rect>
        10 4 7 7</rect></_>
    <_>
      <rect>
        10 6 3 4</rect></_>
    <_>
      <rect>
        10 8 5 12</rect></_>
    <_>
      <rect>
        10 14 5 9</rect></_>
    <_>
      <rect>
        10 16 1 1</rect></_>
    <_>
      <rect>
        10 27 4 2</rect></_>
    <_>
      <rect>
        10 41 1 2</rect></_>
    <_>
      <rect>
        10 45 1 1</rect></_>
    <_>
      <rect>
        11 12 7 12</rect></_>
    <_>
      <rect>
        11 13 3 6</rect></_>
    <_>
      <rect>
        11 17 7 6</rect></_>
    <_>
      <rect>
        11 18 4 6</rect></_>
    <_>
      <rect>
        11 18 5 5</rect></_>
    <_>
      <rect>
        11 20 4 8</rect></_>
    <_>
      <rect>
        11 21 3 2</rect></_>
    <_>
      <rect>
        11 23 5 3</rect></_>
    <_>
      <rect>
        11 28 4 3</rect></_>
    <_>
      <rect>
        11 30 5 4</rect></_>
    <_>
      <rect>
        11 34 2 2</rect></_>
    <_>
      <rect>
        11 44 1 1</rect></_>
    <_>
      <rect>
        11 45 2 1</rect></_>
    <_>
      <rect>
        12 9 2 2</rect></_>
    <_>
      <rect>
        12 16 3 4</rect></_>
    <_>
      <rect>
        12 36 2 2</rect></_>
    <_>
      <rect>
        12 39 5 3</rect></_>
    <_>
      <rect>
        12 43 1 1</rect></_>
    <_>
      <rect>
        13 0 1 1</rect></_>
    <_>
      <rect>
        13 11 5 8</rect></_>
    <_>
      <rect>
        13 16 5 4</rect></_>
    <_>
      <rect>
        13 24 1 1</rect></_>
    <_>
      <rect>
        13 24 3 3</rect></_>
    <_>
      <rect>
        13 32 6 5</rect></_>
    <_>
      <rect>
        13 33 3 2</rect></_>
    <_>
      <rect>
        13 34 5 4</rect></_>
    <_>
      <rect>
        13 35 3 2</rect></_>
    <_>
      <rect>
        13 36 1 1</rect></_>
    <_>
      <rect>
        13 44 1 1</rect></_>
    <_>
      <rect>
        14 6 1 1</rect></_>
    <_>
      <rect>
        14 7 6 10</rect></_>
    <_>
      <rect>
        14 11 3 3</rect></_>
    <_>
      <rect>
        14 13 6 5</rect></_>
    <_>
      <rect>
        14 18 5 5</rect></_>
    <_>
      <rect>
        14 20 1 1</rect></_>
    <_>
      <rect>
        14 31 3 2</rect></_>
    <_>
      <rect>
        14 34 2 2</rect></_>
    <_>
      <rect>
        14 37 1 1</rect></_>
    <_>
      <rect>
        15 2 4 6</rect></_>
    <_>
      <rect>
        15 4 4 5</rect></_>
    <_>
      <rect>
        15 19 4 6</rect></_>
    <_>
      <rect>
        15 19 5 7</rect></_>
    <_>
      <rect>
        15 22 3 2</rect></_>
    <_>
      <rect>
        15 23 3 3</rect></_>
    <_>
      <rect>
        15 27 5 4</rect></_>
    <_>
      <rect>
        15 28 5 6</rect></_>
    <_>
      <rect>
        15 42 1 1</rect></_>
    <_>
      <rect>
        15 44 1 1</rect></_>
    <_>
      <rect>
        16 7 2 3</rect></_>
    <_>
      <rect>
        16 13 4 2</rect></_>
    <_>
      <rect>
        16 16 5 6</rect></_>
    <_>
      <rect>
        16 25 4 4</rect></_>
    <_>
      <rect>
        16 35 1 2</rect></_>
    <_>
      <rect>
        17 0 5 4</rect></_>
    <_>
      <rect>
        17 1 5 6</rect></_>
    <_>
      <rect>
        17 35 3 4</rect></_>
    <_>
      <rect>
        17 44 1 1</rect></_>
    <_>
      <rect>
        17 45 1 1</rect></_>
    <_>
      <rect>
        18 3 2 3</rect></_>
    <_>
      <rect>
        18 20 4 5</rect></_>
    <_>
      <rect>
        18 36 3 4</rect></_>
    <_>
      <rect>
        18 44 1 1</rect></_>
    <_>
      <rect>
        19 14 1 2</rect></_>
    <_>
      <rect>
        19 44 2 1</rect></_>
    <_>
      <rect>
        20 0 1 1</rect></_>
    <_>
      <rect>
        20 1 3 1</rect></_>
    <_>
      <rect>
        20 8 4 4</rect></_>
    <_>
      <rect>
        20 12 4 7</rect></_>
    <_>
      <rect>
        20 18 3 3</rect></_>
    <_>
      <rect>
        20 44 2 1</rect></_>
    <_>
      <rect>
        21 0 3 2</rect></_>
    <_>
      <rect>
        21 0 3 5</rect></_>
    <_>
      <rect>
        21 13 2 1</rect></_>
    <_>
      <rect>
        21 21 2 3</rect></_>
    <_>
      <rect>
        21 24 3 7</rect></_>
    <_>
      <rect>
        21 43 2 1</rect></_>
    <_>
      <rect>
        22 0 2 2</rect></_>
    <_>
      <rect>
        22 10 3 1</rect></_>
    <_>
      <rect>
        22 23 3 3</rect></_>
    <_>
      <rect>
        22 29 1 1</rect></_>
    <_>
      <rect>
        22 30 3 6</rect></_>
    <_>
      <rect>
        22 37 3 3</rect></_>
    <_>
      <rect>
        22 42 3 2</rect></_>
    <_>
      <rect>
        22 45 1 1</rect></_>
    <_>
      <rect>
        23 1 3 1</rect></_>
    <_>
      <rect>
        23 2 3 4</rect></_>
    <_>
      <rect>
        23 5 3 5</rect></_>
    <_>
      <rect>
        23 15 3 2</rect></_>
    <_>
      <rect>
        23 19 3 6</rect></_>
    <_>
      <rect>
        23 22 3 5</rect></_>
    <_>
      <rect>
        23 27 3 3</rect></_>
    <_>
      <rect>
        23 32 3 4</rect></_>
    <_>
      <rect>
        23 36 3 3</rect></_>
    <_>
      <rect>
        24 41 2 2</rect></_>
    <_>
      <rect>
        25 8 2 3</rect></_>
    <_>
      <rect>
        25 13 1 1</rect></_>
    <_>
      <rect>
        25 34 2 1</rect></_>
    <_>
      <rect>
        25 41 1 1</rect></_>
    <_>
      <rect>
        26 0 1 2</rect></_>
    <_>
      <rect>
        26 3 2 3</rect></_>
    <_>
      <rect>
        26 11 1 4</rect></_>
    <_>
      <rect>
        26 17 2 3</rect></_>
    <_>
      <rect>
        26 19 2 9</rect></_>
    <_>
      <rect>
        26 22 2 2</rect></_>
    <_>
      <rect>
        26 36 1 2</rect></_>
    <_>
      <rect>
        26 36 2 1</rect></_>
    <_>
      <rect>
        26 38 1 1</rect></_>
    <_>
      <rect>
        26 40 2 2</rect></_>
    <_>
      <rect>
        27 4 1 1</rect></_>
    <_>
      <rect>
        27 27 1 1</rect></_>
    <_>
      <rect>
        28 19 1 2</rect></_>
    <_>
      <rect>
        28 30 1 1</rect></_>
    <_>
      <rect>
        29 10 1 2</rect></_>
    <_>
      <rect>
        29 21 1 1</rect></_>
    <_>
      <rect>
        29 26 1 1</rect></_>
    <_>
      <rect>
        29 29 1 2</rect></_></features></cascade>
</opencv_storage>
